booster[0]:
0:[ymJqhScore<647.5] yes=1,no=2,missing=1
	1:[xy_behaviorFailPayNumHist<4.5] yes=3,no=4,missing=3
		3:leaf=-0.0158448629
		4:leaf=-0.000618819264
	2:[ymJqhScore<719.5] yes=5,no=6,missing=5
		5:leaf=-0.0210280921
		6:leaf=-0.0231521744
booster[1]:
0:[hds_var24<-4444] yes=1,no=2,missing=1
	1:[overdue_days_max<6.5] yes=3,no=4,missing=3
		3:leaf=-0.0161687341
		4:leaf=0.00314963446
	2:[xy_behaviorFailPayNumHist<7.5] yes=5,no=6,missing=5
		5:leaf=-0.0206259601
		6:leaf=-0.00757505931
booster[2]:
0:[ymJqhScore<647.5] yes=1,no=2,missing=1
	1:[overdue_days_max<4.5] yes=3,no=4,missing=3
		3:leaf=-0.0152549455
		4:leaf=-0
	2:[overdue_days_max<9.5] yes=5,no=6,missing=5
		5:leaf=-0.0216250382
		6:leaf=-0.00882965326
booster[3]:
0:[ymJqhScore<662.5] yes=1,no=2,missing=1
	1:[hds_var36<0.918701172] yes=3,no=4,missing=3
		3:leaf=-0.0148040634
		4:leaf=-0.0207551364
	2:[overdue_days_max<9.5] yes=5,no=6,missing=5
		5:leaf=-0.0215250012
		6:leaf=-0.00654425565
booster[4]:
0:[ymJqhScore<662.5] yes=1,no=2,missing=1
	1:[hds_var36<0.844482422] yes=3,no=4,missing=3
		3:leaf=-0.0138153099
		4:leaf=-0.0195923615
	2:[overdue_days_max<9.5] yes=5,no=6,missing=5
		5:leaf=-0.0213538576
		6:leaf=-0.0054295063
booster[5]:
0:[ymJqhScore<662.5] yes=1,no=2,missing=1
	1:[hds_var36<0.844482422] yes=3,no=4,missing=3
		3:leaf=-0.0139200557
		4:leaf=-0.0198747925
	2:[xy_behaviorFailPayNumHist<6.5] yes=5,no=6,missing=5
		5:leaf=-0.0211294368
		6:leaf=-0.00996673387
booster[6]:
0:[overdue_days_max<4.5] yes=1,no=2,missing=1
	1:[gd_NIKEAScore1500<583.5] yes=3,no=4,missing=3
		3:leaf=-0.0182439703
		4:leaf=-0.0207960289
	2:[consumer_stability<85.0625] yes=5,no=6,missing=5
		5:leaf=0.00328257121
		6:leaf=-0.0112546934
booster[7]:
0:[ymJqhScore<648.5] yes=1,no=2,missing=1
	1:[xy_behaviorFailPayNumHist<4.5] yes=3,no=4,missing=3
		3:leaf=-0.0146206794
		4:leaf=0.000505762408
	2:[overdue_days_max<9.5] yes=5,no=6,missing=5
		5:leaf=-0.0204829406
		6:leaf=-0.00703323865
booster[8]:
0:[ymJqhScore<648.5] yes=1,no=2,missing=1
	1:[xy_behaviorFailPayNumHist<7.5] yes=3,no=4,missing=3
		3:leaf=-0.0142532513
		4:leaf=0.00265512918
	2:[overdue_days_max<11.5] yes=5,no=6,missing=5
		5:leaf=-0.0202435534
		6:leaf=-0.00450516213
booster[9]:
0:[ymJqhScore<648.5] yes=1,no=2,missing=1
	1:[hds_var36<0.958251953] yes=3,no=4,missing=3
		3:leaf=-0.0127036544
		4:leaf=-0.019467555
	2:[ymJqhScore<734.5] yes=5,no=6,missing=5
		5:leaf=-0.0190834068
		6:leaf=-0.0213110279
booster[10]:
0:[ymJqhScore<648.5] yes=1,no=2,missing=1
	1:[plan_prob<66.5] yes=3,no=4,missing=3
		3:leaf=-0.01003912
		4:leaf=-0.0153219774
	2:[overdue_days_max<11.5] yes=5,no=6,missing=5
		5:leaf=-0.0197897404
		6:leaf=-0.00425457954
booster[11]:
0:[ymJqhScore<662.5] yes=1,no=2,missing=1
	1:[xy_behaviorFailPayNumHist<4.5] yes=3,no=4,missing=3
		3:leaf=-0.0144983279
		4:leaf=-0
	2:[overdue_days_max<9.5] yes=5,no=6,missing=5
		5:leaf=-0.0198493842
		6:leaf=-0.00657233736
booster[12]:
0:[ymJqhScore<629.5] yes=1,no=2,missing=1
	1:[ymJqhScore<-4234.5] yes=3,no=4,missing=3
		3:leaf=-0.0163385067
		4:leaf=-0.0100095095
	2:[ymJqhScore<734.5] yes=5,no=6,missing=5
		5:leaf=-0.0182584208
		6:leaf=-0.0206449348
booster[13]:
0:[ymJqhScore<648.5] yes=1,no=2,missing=1
	1:[overdue_days_max<0.5] yes=3,no=4,missing=3
		3:leaf=-0.0138441157
		4:leaf=-0.00294593186
	2:[ymJqhScore<734.5] yes=5,no=6,missing=5
		5:leaf=-0.0181952957
		6:leaf=-0.0204318129
booster[14]:
0:[ymJqhScore<647.5] yes=1,no=2,missing=1
	1:[xy_behaviorFailPayNumHist<4.5] yes=3,no=4,missing=3
		3:leaf=-0.0134323854
		4:leaf=0.000615665747
	2:[ymJqhScore<734.5] yes=5,no=6,missing=5
		5:leaf=-0.0181647222
		6:leaf=-0.0203818697
booster[15]:
0:[ymJqhScore<648.5] yes=1,no=2,missing=1
	1:[xy_behaviorFailPayNumHist<4.5] yes=3,no=4,missing=3
		3:leaf=-0.0133435763
		4:leaf=-0
	2:[overdue_days_max<11.5] yes=5,no=6,missing=5
		5:leaf=-0.0189191084
		6:leaf=-0.00356645114
booster[16]:
0:[ymJqhScore<647.5] yes=1,no=2,missing=1
	1:[plan_prob<66.5] yes=3,no=4,missing=3
		3:leaf=-0.00912333094
		4:leaf=-0.0145760374
	2:[overdue_days_max<9.5] yes=5,no=6,missing=5
		5:leaf=-0.0186004937
		6:leaf=-0.0062425104
booster[17]:
0:[ymJqhScore<647.5] yes=1,no=2,missing=1
	1:[hds_var36<0.854248047] yes=3,no=4,missing=3
		3:leaf=-0.0115440944
		4:leaf=-0.0176566765
	2:[ymJqhScore<734.5] yes=5,no=6,missing=5
		5:leaf=-0.0176117346
		6:leaf=-0.0198522024
booster[18]:
0:[ymJqhScore<648.5] yes=1,no=2,missing=1
	1:[overdue_days_max<0.5] yes=3,no=4,missing=3
		3:leaf=-0.0131889526
		4:leaf=-0.00208258932
	2:[overdue_days_max<9.5] yes=5,no=6,missing=5
		5:leaf=-0.0182908159
		6:leaf=-0.00511334697
booster[19]:
0:[ymJqhScore<648.5] yes=1,no=2,missing=1
	1:[ymJqhScore<-4234.5] yes=3,no=4,missing=3
		3:leaf=-0.0165844541
		4:leaf=-0.0106718233
	2:[overdue_days_max<9.5] yes=5,no=6,missing=5
		5:leaf=-0.0180575494
		6:leaf=-0.00594558381
booster[20]:
0:[ymJqhScore<648.5] yes=1,no=2,missing=1
	1:[overdue_days_max<4.5] yes=3,no=4,missing=3
		3:leaf=-0.0125716692
		4:leaf=0.00393574918
	2:[overdue_days_max<9.5] yes=5,no=6,missing=5
		5:leaf=-0.0180196371
		6:leaf=-0.00587570202
booster[21]:
0:[ymJqhScore<647.5] yes=1,no=2,missing=1
	1:[overdue_days_max<4.5] yes=3,no=4,missing=3
		3:leaf=-0.0122896703
		4:leaf=0.00257721497
	2:[ymJqhScore<719.5] yes=5,no=6,missing=5
		5:leaf=-0.0167648569
		6:leaf=-0.0187904034
booster[22]:
0:[ymJqhScore<648.5] yes=1,no=2,missing=1
	1:[plan_prob<66.5] yes=3,no=4,missing=3
		3:leaf=-0.00858784094
		4:leaf=-0.0138241211
	2:[overdue_days_max<9.5] yes=5,no=6,missing=5
		5:leaf=-0.0178366397
		6:leaf=-0.00604079897
booster[23]:
0:[ymJqhScore<662.5] yes=1,no=2,missing=1
	1:[xy_applyLoanQueryNumL1M<2.5] yes=3,no=4,missing=3
		3:leaf=-0.0129113607
		4:leaf=0.00579982065
	2:[overdue_days_max<9.5] yes=5,no=6,missing=5
		5:leaf=-0.0178590305
		6:leaf=-0.00469729491
booster[24]:
0:[ymJqhScore<648.5] yes=1,no=2,missing=1
	1:[hds_var36<0.844482422] yes=3,no=4,missing=3
		3:leaf=-0.00980794057
		4:leaf=-0.0161159672
	2:[overdue_days_max<9.5] yes=5,no=6,missing=5
		5:leaf=-0.0173596535
		6:leaf=-0.00507991854
booster[25]:
0:[ymJqhScore<647.5] yes=1,no=2,missing=1
	1:[hds_var36<0.912597656] yes=3,no=4,missing=3
		3:leaf=-0.0103527457
		4:leaf=-0.0172203444
	2:[ymJqhScore<734.5] yes=5,no=6,missing=5
		5:leaf=-0.0162615553
		6:leaf=-0.0184570123
booster[26]:
0:[ymJqhScore<624.5] yes=1,no=2,missing=1
	1:[ymJqhScore<-4234.5] yes=3,no=4,missing=3
		3:leaf=-0.014167753
		4:leaf=-0.00709716603
	2:[ymJqhScore<717.5] yes=5,no=6,missing=5
		5:leaf=-0.0155774411
		6:leaf=-0.0181373879
booster[27]:
0:[hds_var22<-4444] yes=1,no=2,missing=1
	1:[overdue_amount_max<503.25] yes=3,no=4,missing=3
		3:leaf=-0.0120570241
		4:leaf=0.00639545079
	2:[xy_behaviorFailPayNumHist<7.5] yes=5,no=6,missing=5
		5:leaf=-0.0160841867
		6:leaf=-0.00259710848
booster[28]:
0:[ymJqhScore<662.5] yes=1,no=2,missing=1
	1:[overdue_amount_max<46.375] yes=3,no=4,missing=3
		3:leaf=-0.0122690778
		4:leaf=-0.00168167346
	2:[overdue_days_max<11.5] yes=5,no=6,missing=5
		5:leaf=-0.0170620419
		6:leaf=-0.00360618369
booster[29]:
0:[ymJqhScore<647.5] yes=1,no=2,missing=1
	1:[plan_prob<66.5] yes=3,no=4,missing=3
		3:leaf=-0.00722803408
		4:leaf=-0.013311089
	2:[ymJqhScore<734.5] yes=5,no=6,missing=5
		5:leaf=-0.0158882122
		6:leaf=-0.0179939345
booster[30]:
0:[ymJqhScore<662.5] yes=1,no=2,missing=1
	1:[xy_behaviorFailPayNumHist<4.5] yes=3,no=4,missing=3
		3:leaf=-0.0120784976
		4:leaf=0.000702072401
	2:[overdue_days_max<9.5] yes=5,no=6,missing=5
		5:leaf=-0.0168360658
		6:leaf=-0.00435213372
booster[31]:
0:[ymJqhScore<662.5] yes=1,no=2,missing=1
	1:[hds_var36<0.844482422] yes=3,no=4,missing=3
		3:leaf=-0.0100460462
		4:leaf=-0.0155851422
	2:[xy_behaviorFailPayNumHist<6.5] yes=5,no=6,missing=5
		5:leaf=-0.0167051814
		6:leaf=-0.00643694308
booster[32]:
0:[ymJqhScore<662.5] yes=1,no=2,missing=1
	1:[hds_var113<220.5] yes=3,no=4,missing=3
		3:leaf=-0.00994495861
		4:leaf=-0.015794605
	2:[overdue_days_max<9.5] yes=5,no=6,missing=5
		5:leaf=-0.0166677386
		6:leaf=-0.00412953226
booster[33]:
0:[ymJqhScore<647.5] yes=1,no=2,missing=1
	1:[plan_prob<66.5] yes=3,no=4,missing=3
		3:leaf=-0.0072330744
		4:leaf=-0.0127899144
	2:[ymJqhScore<719.5] yes=5,no=6,missing=5
		5:leaf=-0.0152333416
		6:leaf=-0.0173537582
booster[34]:
0:[ymJqhScore<647.5] yes=1,no=2,missing=1
	1:[overdue_days_max<4.5] yes=3,no=4,missing=3
		3:leaf=-0.0112318275
		4:leaf=0.00339185679
	2:[overdue_days_max<9.5] yes=5,no=6,missing=5
		5:leaf=-0.0161009002
		6:leaf=-0.00433743279
booster[35]:
0:[ymJqhScore<648.5] yes=1,no=2,missing=1
	1:[hds_var36<0.918701172] yes=3,no=4,missing=3
		3:leaf=-0.00913054589
		4:leaf=-0.0160533413
	2:[ymJqhScore<734.5] yes=5,no=6,missing=5
		5:leaf=-0.0150459418
		6:leaf=-0.0173682682
booster[36]:
0:[ymJqhScore<648.5] yes=1,no=2,missing=1
	1:[plan_prob<66.5] yes=3,no=4,missing=3
		3:leaf=-0.00664155697
		4:leaf=-0.0119723342
	2:[ymJqhScore<734.5] yes=5,no=6,missing=5
		5:leaf=-0.0149797294
		6:leaf=-0.0173908137
booster[37]:
0:[ymJqhScore<648.5] yes=1,no=2,missing=1
	1:[hds_var113<219.399994] yes=3,no=4,missing=3
		3:leaf=-0.00914052315
		4:leaf=-0.0154695781
	2:[overdue_days_max<11.5] yes=5,no=6,missing=5
		5:leaf=-0.0158090461
		6:leaf=-0.00060700794
booster[38]:
0:[ymJqhScore<648.5] yes=1,no=2,missing=1
	1:[hds_var36<0.918701172] yes=3,no=4,missing=3
		3:leaf=-0.00870733429
		4:leaf=-0.0158438459
	2:[overdue_days_max<9.5] yes=5,no=6,missing=5
		5:leaf=-0.0156340953
		6:leaf=-0.00349710439
booster[39]:
0:[ymJqhScore<647.5] yes=1,no=2,missing=1
	1:[hds_var36<0.854248047] yes=3,no=4,missing=3
		3:leaf=-0.00835712813
		4:leaf=-0.0150041645
	2:[ymJqhScore<734.5] yes=5,no=6,missing=5
		5:leaf=-0.0146400724
		6:leaf=-0.0169307012
booster[40]:
0:[ymJqhScore<653.5] yes=1,no=2,missing=1
	1:[plan_prob<66.5] yes=3,no=4,missing=3
		3:leaf=-0.0067918431
		4:leaf=-0.0118940081
	2:[overdue_days_max<9.5] yes=5,no=6,missing=5
		5:leaf=-0.0155285802
		6:leaf=-0.00374768768
booster[41]:
0:[ymJqhScore<647.5] yes=1,no=2,missing=1
	1:[plan_prob<57.5] yes=3,no=4,missing=3
		3:leaf=-0.00411382644
		4:leaf=-0.0113454899
	2:[ymJqhScore<734.5] yes=5,no=6,missing=5
		5:leaf=-0.0143833244
		6:leaf=-0.0167249534
booster[42]:
0:[ymJqhScore<648.5] yes=1,no=2,missing=1
	1:[overdue_days_max<0.5] yes=3,no=4,missing=3
		3:leaf=-0.0102769984
		4:leaf=-0
	2:[ymJqhScore<734.5] yes=5,no=6,missing=5
		5:leaf=-0.0143246781
		6:leaf=-0.0166210327
booster[43]:
0:[ymJqhScore<653.5] yes=1,no=2,missing=1
	1:[plan_prob<66.5] yes=3,no=4,missing=3
		3:leaf=-0.00636485079
		4:leaf=-0.0114555545
	2:[ymJqhScore<734.5] yes=5,no=6,missing=5
		5:leaf=-0.0141720735
		6:leaf=-0.0164431389
booster[44]:
0:[ymJqhScore<648.5] yes=1,no=2,missing=1
	1:[overdue_days_max<2.5] yes=3,no=4,missing=3
		3:leaf=-0.0101917274
		4:leaf=0.00302349147
	2:[ymJqhScore<734.5] yes=5,no=6,missing=5
		5:leaf=-0.0140824383
		6:leaf=-0.0164443869
booster[45]:
0:[ymJqhScore<647.5] yes=1,no=2,missing=1
	1:[xy_behaviorFailPayNumHist<4.5] yes=3,no=4,missing=3
		3:leaf=-0.00988053903
		4:leaf=0.00461993692
	2:[overdue_days_max<9.5] yes=5,no=6,missing=5
		5:leaf=-0.0151294656
		6:leaf=-0.00350117823
booster[46]:
0:[ymJqhScore<662.5] yes=1,no=2,missing=1
	1:[xy_behaviorFailPayNumHist<4.5] yes=3,no=4,missing=3
		3:leaf=-0.00994409341
		4:leaf=0.00380575005
	2:[xy_behaviorFailPayNumHist<6.5] yes=5,no=6,missing=5
		5:leaf=-0.0150814699
		6:leaf=-0.00288755423
booster[47]:
0:[ymJqhScore<662.5] yes=1,no=2,missing=1
	1:[overdue_amount_max<46.375] yes=3,no=4,missing=3
		3:leaf=-0.0104318541
		4:leaf=-0
	2:[xy_behaviorFailPayNumHist<6.5] yes=5,no=6,missing=5
		5:leaf=-0.0151644312
		6:leaf=-0.00323522068
booster[48]:
0:[ymJqhScore<647.5] yes=1,no=2,missing=1
	1:[plan_prob<66.5] yes=3,no=4,missing=3
		3:leaf=-0.00588195166
		4:leaf=-0.0114344144
	2:[overdue_days_max<9.5] yes=5,no=6,missing=5
		5:leaf=-0.0148109496
		6:leaf=-0.00132332917
booster[49]:
0:[ymJqhScore<662.5] yes=1,no=2,missing=1
	1:[apollo_osBalanceXJAll<-4443.5] yes=3,no=4,missing=3
		3:leaf=-0.0065817507
		4:leaf=-0.0113231763
	2:[gd_NIKEAScore1500<456.5] yes=5,no=6,missing=5
		5:leaf=-0.00195968733
		6:leaf=-0.0147206178
booster[50]:
0:[ymJqhScore<648.5] yes=1,no=2,missing=1
	1:[hds_var36<0.854248047] yes=3,no=4,missing=3
		3:leaf=-0.0074541606
		4:leaf=-0.0138242235
	2:[overdue_days_max<9.5] yes=5,no=6,missing=5
		5:leaf=-0.0144643113
		6:leaf=-0.00261268788
booster[51]:
0:[ymJqhScore<647.5] yes=1,no=2,missing=1
	1:[hds_var36<0.905273438] yes=3,no=4,missing=3
		3:leaf=-0.00794019457
		4:leaf=-0.0148487343
	2:[xy_behaviorFailPayNumHist<6.5] yes=5,no=6,missing=5
		5:leaf=-0.0145262079
		6:leaf=-0.00393485837
booster[52]:
0:[ymJqhScore<662.5] yes=1,no=2,missing=1
	1:[hds_var75<2.5] yes=3,no=4,missing=3
		3:leaf=-0.00799922645
		4:leaf=-0.0134788528
	2:[overdue_days_max<9.5] yes=5,no=6,missing=5
		5:leaf=-0.0143985301
		6:leaf=-0.0010019273
booster[53]:
0:[ymJqhScore<648.5] yes=1,no=2,missing=1
	1:[overdue_days_max<0.5] yes=3,no=4,missing=3
		3:leaf=-0.00962299667
		4:leaf=0.000845177565
	2:[ymJqhScore<734.5] yes=5,no=6,missing=5
		5:leaf=-0.0130599067
		6:leaf=-0.0158167984
booster[54]:
0:[ymJqhScore<624.5] yes=1,no=2,missing=1
	1:[ymJqhScore<-4234.5] yes=3,no=4,missing=3
		3:leaf=-0.0111316778
		4:leaf=-0.00477638328
	2:[ymJqhScore<689.5] yes=5,no=6,missing=5
		5:leaf=-0.0120805046
		6:leaf=-0.0146297887
booster[55]:
0:[ymJqhScore<648.5] yes=1,no=2,missing=1
	1:[plan_prob<66.5] yes=3,no=4,missing=3
		3:leaf=-0.00465525733
		4:leaf=-0.0106106047
	2:[ymJqhScore<734.5] yes=5,no=6,missing=5
		5:leaf=-0.0130021386
		6:leaf=-0.0155113908
booster[56]:
0:[ymJqhScore<647.5] yes=1,no=2,missing=1
	1:[hds_var36<0.854248047] yes=3,no=4,missing=3
		3:leaf=-0.00689243572
		4:leaf=-0.0138859181
	2:[ymJqhScore<734.5] yes=5,no=6,missing=5
		5:leaf=-0.0128984945
		6:leaf=-0.0152918128
booster[57]:
0:[ymJqhScore<647.5] yes=1,no=2,missing=1
	1:[hds_var36<0.912597656] yes=3,no=4,missing=3
		3:leaf=-0.00701590301
		4:leaf=-0.0136332754
	2:[overdue_days_max<11.5] yes=5,no=6,missing=5
		5:leaf=-0.0138362767
		6:leaf=0.000282138586
booster[58]:
0:[ymJqhScore<648.5] yes=1,no=2,missing=1
	1:[plan_prob<66.5] yes=3,no=4,missing=3
		3:leaf=-0.0045304005
		4:leaf=-0.0100800907
	2:[ymJqhScore<734.5] yes=5,no=6,missing=5
		5:leaf=-0.0125637539
		6:leaf=-0.015188897
booster[59]:
0:[ymJqhScore<662.5] yes=1,no=2,missing=1
	1:[hds_var36<0.918701172] yes=3,no=4,missing=3
		3:leaf=-0.00729182968
		4:leaf=-0.0141273085
	2:[overdue_days_max<11.5] yes=5,no=6,missing=5
		5:leaf=-0.0140863238
		6:leaf=-0
booster[60]:
0:[ymJqhScore<623.5] yes=1,no=2,missing=1
	1:[ymJqhScore<-4234.5] yes=3,no=4,missing=3
		3:leaf=-0.0110202087
		4:leaf=-0.00387641555
	2:[ymJqhScore<689.5] yes=5,no=6,missing=5
		5:leaf=-0.011833624
		6:leaf=-0.0145038711
booster[61]:
0:[ymJqhScore<648.5] yes=1,no=2,missing=1
	1:[overdue_days_max<4.5] yes=3,no=4,missing=3
		3:leaf=-0.00828287005
		4:leaf=0.0100410907
	2:[ymJqhScore<734.5] yes=5,no=6,missing=5
		5:leaf=-0.0128022097
		6:leaf=-0.0152194696
